{
  "architecture": {
    "input_size": 13,
    "hidden_layers": [
      32,
      16
    ],
    "output_size": 1,
    "activation": "relu"
  },
  "weights": [
    [
      [
        0.0021848000108287153,
        0.3298430353836555,
        0.29062024462194397,
        0.15117040442698043,
        -0.08603982236763227,
        -0.1763971123636927,
        -0.40827452970861644,
        0.48757682368125993,
        0.35796863936137013,
        0.23044259264913433,
        -0.5505269194013228,
        0.32693328063388666,
        0.37342062746365295,
        -0.2526793349143297,
        -0.1715894277040926,
        -0.2720509761510833,
        -0.1453568508801638,
        0.07448413049936028,
        -0.10858459705240026,
        -0.3316409510591121,
        0.110838535273249,
        -0.21705371609269122,
        -0.13364501654851715,
        -0.264541244633912,
        0.3681215731453247,
        0.2742766468100999,
        -0.15337754632751002,
        -0.1304511489982818,
        0.1391558797728353,
        -0.2569982294984507,
        0.2975283717310631,
        -0.1809158447443257
      ],
      [
        -0.363565451654315,
        0.3746786121632228,
        0.2981196095251148,
        0.27760434673843937,
        -0.13018579527994897,
        -0.5029670638774025,
        -0.05824292609383204,
        -0.04972261018263892,
        -0.4887293822838151,
        0.2725183378365689,
        -0.4562775877215384,
        0.12998621868426646,
        -0.28745711961221176,
        0.03884072950286261,
        -0.11028222979434488,
        0.3655805187806434,
        -0.05834444024789449,
        -0.2859327616195902,
        0.3265285840210819,
        0.28211057515021737,
        0.4417398502970276,
        0.3958585015016025,
        0.05822534546399948,
        0.5320654386239907,
        -0.3401776746707371,
        -0.3021042399171596,
        -0.36770504982422814,
        0.0650101151169745,
        -0.3550148187569028,
        -0.24399059196558137,
        0.6043832903949075,
        -0.06766538048031698
      ],
      [
        -0.18035490825206899,
        0.044144619224280084,
        -0.34187981929977296,
        0.29890786400966063,
        -0.30874897533690715,
        0.3706994213492655,
        0.2332789507156408,
        -0.21783442072346457,
        -0.810553181064724,
        0.3603538283080103,
        0.47428754772730547,
        0.1761547470371855,
        0.31522376674891167,
        -0.40055908500139586,
        -0.06677823556440765,
        -0.1977554292732389,
        0.1743873083282515,
        0.05070378082290076,
        -0.2378741172787763,
        -0.4409329187210502,
        -0.11044004774265975,
        -0.008097047998890584,
        0.15099175601693066,
        0.01705875487423054,
        0.270775931217514,
        -0.006640696173306593,
        -0.3146659198428976,
        0.2485615321022211,
        0.02707055769732732,
        0.08675484927732281,
        0.35788161490302617,
        -0.2831457923314722
      ],
      [
        0.12825412998503655,
        -0.05439555503154896,
        -0.3072436841109398,
        -0.29098679238034436,
        -0.35345657399834246,
        -0.029064138384436517,
        -0.039876545452986994,
        0.009887479816822907,
        0.6528961081546283,
        -0.39384361675542484,
        -0.17644676112546898,
        -0.03948015948199652,
        -0.2328898347170474,
        -0.3850876929143232,
        -0.11701293490711474,
        -0.083448789916118,
        0.308822235568073,
        0.266146221302604,
        0.03645041034215523,
        0.4442686282748494,
        0.3214874772120075,
        -0.12422375681577708,
        0.3557366443315811,
        -0.3599422200135991,
        0.4006195313852234,
        0.2817301036571141,
        0.009421894343978627,
        -0.40444771900298393,
        -0.22136960139185455,
        0.07328961079873422,
        0.4007565798076054,
        0.38303722345079266
      ],
      [
        -0.5408956489565894,
        -0.035905929607168666,
        -0.23534367498084463,
        -0.32000119473908184,
        -0.15555066820978286,
        -0.18517660080214302,
        0.5555481877473012,
        -0.12560773045386525,
        0.13764694924557686,
        0.21817398898732007,
        0.3623417943987409,
        0.23476083370068485,
        0.5181259456281416,
        -0.2869483933042599,
        0.10613773358892185,
        -0.077535389526948,
        -0.19711761355449775,
        -0.30601497309386916,
        0.0699149932397997,
        0.1365329086712702,
        -0.3623213096271693,
        -0.22860222674538921,
        0.41332729835549215,
        -0.31978392583650833,
        -0.6734148935205786,
        0.024036468228903474,
        0.4685016496290465,
        -0.15953491950092732,
        0.23992485601818855,
        0.2810322393403492,
        -0.3285866379535265,
        -0.06567424024285513
      ],
      [
        -0.09828750422697519,
        0.07368712070523839,
        0.21597886529495425,
        0.002624431623575197,
        -0.18788025763863062,
        0.1829505649560952,
        -0.18844712691404142,
        -0.2288942951511002,
        -0.2258257270486546,
        -0.07587996787157791,
        0.0993969009392686,
        -0.57648266577195,
        0.005694076520979539,
        -0.2608312067187628,
        0.2659365312450207,
        -0.19475614348474948,
        0.08831255185957385,
        -0.09855599696747505,
        0.27245450788093184,
        -0.25607287651433663,
        -0.08015257052303258,
        -0.32906612786018824,
        0.31284292541430253,
        0.4224124679373663,
        -0.2720333152072574,
        0.08803126957519908,
        0.4287680440233913,
        0.04761917842496421,
        0.07349083758074654,
        -0.16271601536411748,
        -0.5040254665874467,
        0.6678438063906019
      ],
      [
        0.28625298908473484,
        0.09231301737787696,
        -0.12217521410299811,
        -0.09973464497814544,
        0.2709226091314015,
        0.2247724283327416,
        0.27737211244080956,
        0.24647988493442669,
        0.16222373497577988,
        -0.27378281888510714,
        -0.2033822247575232,
        0.16520238946098342,
        0.12681984456627216,
        -0.43401076639938563,
        -0.2129039150155147,
        0.2455740799577746,
        -0.4168495515968153,
        -0.2503379463820586,
        -0.018660809085311557,
        0.1402707279912,
        0.15518588938324177,
        -0.15513891227674434,
        0.18022932275340375,
        -0.21542881748920176,
        -0.1271793290757781,
        0.17314020787705747,
        0.19550785158145378,
        0.256475846883975,
        0.08081380014383983,
        0.10206051967017987,
        -0.1741398224179899,
        -0.06732162025546719
      ],
      [
        -0.2729967863503983,
        -0.3564183583406218,
        0.12465322316608779,
        -0.15436765202095143,
        0.20999163510462796,
        -0.1958775834973773,
        0.29467082934341454,
        -0.03398070538739967,
        0.07011623729203105,
        -0.23161967559855048,
        -0.2573297630848943,
        -0.09504215568812154,
        -0.25428902857271424,
        -0.5061556532554708,
        0.2038778243053023,
        -0.14622827355143803,
        0.159095130970956,
        0.2763499471225063,
        0.2600411715850794,
        -0.09861601906303925,
        -0.48474829696740396,
        0.23892281328884776,
        -0.05803757186753822,
        0.20126375115688633,
        0.33781085006999,
        0.19467480601655648,
        -0.269099563948532,
        -0.20804000879911394,
        0.07141773835654171,
        -0.13958507689865507,
        -0.30857998658568114,
        -0.11699783284439727
      ],
      [
        0.3443836032563084,
        0.23971213481066847,
        -0.00020011561357826107,
        -0.33176197943469293,
        0.08635738482721007,
        0.31444562414573907,
        -0.3321317336034788,
        0.04529775519015683,
        0.018897066997459407,
        0.17410889479107253,
        0.19314131881397284,
        0.04289463032033273,
        -0.018769473330112047,
        -0.15418436347560532,
        0.2473519375251517,
        0.22985025050292118,
        0.1914400461422189,
        0.34092908674332156,
        -0.020702169345317125,
        -0.01997729551082471,
        0.3691137780037558,
        0.1769700747543234,
        0.1415821504450509,
        0.07682035597878571,
        0.2639377636396758,
        -0.14429833894782657,
        -0.1827692638179443,
        -0.19075288739700244,
        -0.013286238917701445,
        -0.3773945595149428,
        0.11005670431518533,
        -0.16557420030922082
      ],
      [
        -0.17125325853284307,
        0.043164833059304915,
        -0.4106876199655733,
        -0.3289855166931602,
        0.3122583931757285,
        -0.2306518657745393,
        -0.2940259738525668,
        0.07025885305569073,
        0.2583539340385637,
        -0.0500137952584784,
        0.35573623656832665,
        -0.3658903015342848,
        -0.27232025700833135,
        -0.06607550318812391,
        0.1591718921446501,
        0.3855551771077127,
        0.08505869127164034,
        0.3389044659309287,
        -0.010948021804671476,
        -0.05790027270136975,
        0.2575901777577347,
        -0.12458316142478863,
        -0.010237280801775472,
        -0.2513106893598106,
        -0.1561240618926213,
        0.34322651719461555,
        0.3211347627006109,
        0.3274030016680369,
        -0.07209801249137457,
        -0.1820274016422337,
        -0.12171322025049858,
        -0.16909646831698508
      ],
      [
        0.16497675794185174,
        0.25496677406553103,
        0.2723739796840866,
        -0.10319479961024114,
        0.35962017745442637,
        0.20833808953640273,
        0.11376703209714846,
        -0.010873134887831377,
        -0.1585758224321799,
        -0.012778679107802306,
        -0.3533256468474011,
        0.07404533316664333,
        -0.26991512425317865,
        -0.43380741153534996,
        -0.5232406101296386,
        -0.06130559687478749,
        0.11021909758708562,
        0.31131511531636324,
        -0.28920783164509833,
        -0.3529930798205658,
        -0.033308775435089054,
        -0.03079716525083334,
        -0.4721008651964743,
        -0.48066189955128574,
        0.03564056850517232,
        -0.12734481653939453,
        0.0646728429313149,
        -0.230005361512616,
        -0.3299355801656389,
        0.2665777310914826,
        0.37960682888052005,
        0.44371012836465507
      ],
      [
        0.182794792086942,
        -0.32214296218214555,
        -0.5270420483856741,
        -0.04489189064433407,
        -0.60959634587287,
        0.30590578275662145,
        0.47874463360798275,
        0.06814563941191344,
        0.06334955109240147,
        0.1762567239699691,
        -0.1074741469896954,
        0.2312599866299814,
        0.3749048940622913,
        -0.12299856520568732,
        0.40020749482509665,
        0.21870798396128355,
        -0.215304690260754,
        -0.4410809994873598,
        -0.3481564146184729,
        -0.5385991706355299,
        -0.13422380798194775,
        0.15420758264368337,
        -0.2823963677403397,
        0.01789282975317653,
        0.247923810017948,
        -0.24774936331538655,
        0.4862964882102784,
        -0.1495505446804078,
        -0.2372979887343189,
        0.09021704392532956,
        0.19344647128309922,
        0.5554072781481694
      ],
      [
        0.2930104545837357,
        0.5392292187104103,
        -0.3553513402419045,
        -0.6187838290162034,
        0.26516718772975295,
        0.22862949239630456,
        0.4864437198003371,
        -0.37608813326650625,
        -0.27308053213890143,
        0.11366777335798789,
        -0.2733246145142303,
        0.3207871130419928,
        0.22389265810617945,
        -0.33646456125329605,
        -0.016633705958992037,
        -0.1997063794503244,
        -0.5803126540017752,
        0.7136886589890384,
        -0.07297889224827477,
        0.16997159693636835,
        -0.18540325446187042,
        0.41625697823135077,
        -0.31915887641331964,
        -0.2770005523106282,
        0.12486307358096577,
        -0.5467975745419286,
        -0.3803451318140603,
        0.33096835201925257,
        0.432930477778704,
        -0.22964701410895996,
        -0.021796697900003915,
        -0.10260327908361846
      ]
    ],
    [
      [
        0.080004861806596,
        -0.4223978543229019,
        0.28043571404465323,
        0.18140761323477433,
        0.16590191894024844,
        0.4273877635983127,
        -0.32291422630733246,
        0.005121425221891168,
        -0.18385735160683586,
        0.09514758179787283,
        -0.1502695820354328,
        -0.3380120884435939,
        -0.3251471295557286,
        0.27754668505286656,
        0.31975490418416097,
        0.2003978440518187
      ],
      [
        0.44823134552563215,
        -0.10724670883771889,
        -0.11482978339930795,
        0.37520259321338684,
        -0.5712147638957402,
        0.44559450537737855,
        -0.3969577181532037,
        0.24030319358561797,
        -0.1857079287167358,
        0.36212186153568515,
        0.1373984034022449,
        0.18926862985809131,
        -0.35281137428094883,
        0.16362437422490494,
        0.46194840606589743,
        0.13689382077489656
      ],
      [
        0.4045779310125838,
        0.10372592133624228,
        0.39536910699022404,
        0.3831211058750528,
        -0.09547769989655032,
        0.540548175549296,
        -0.3945787598757824,
        -0.20629801011882193,
        0.6389949963003809,
        0.6400640279258666,
        0.2521997763872878,
        0.0949731523640711,
        -0.23533982601827186,
        0.09431512477106722,
        0.2828682626776998,
        0.1728953750077888
      ],
      [
        0.289835222117178,
        -0.33651281545347606,
        0.5373010752423826,
        0.5395800406761516,
        0.20150732648431086,
        0.20757994533809085,
        -0.19847676190182545,
        0.18953784528526516,
        0.34520227401666487,
        -0.020878521261704513,
        0.5017159213833225,
        0.19247987196378474,
        0.23309402261502288,
        0.38959041755893054,
        0.2892078680254391,
        0.1328383570366081
      ],
      [
        0.6311529187768655,
        0.28448874591816375,
        0.1593261200695721,
        -0.03860983720033292,
        -0.24368859725095085,
        0.46992562183932685,
        0.27492863222012254,
        -0.29642423999175266,
        0.3992477011354307,
        0.30271510561961645,
        0.6253396882159127,
        0.26714947169447134,
        0.17805757398237335,
        0.30993833190987224,
        0.2567203651090112,
        0.11094227931760439
      ],
      [
        0.037839458329050044,
        0.22526460654380145,
        0.6263412223529313,
        0.642928654199289,
        0.4979738956235328,
        0.28801620905514286,
        0.1402252116951501,
        0.2454847703335626,
        0.6253347903489653,
        0.21490791636646284,
        0.2674296961947523,
        -0.18886524007024036,
        0.26757547543248356,
        0.3644335943832503,
        0.13597075334879888,
        0.3946640715570946
      ],
      [
        0.22597423944568276,
        -0.06714673989105169,
        -0.16605795611307844,
        0.2493074744056571,
        0.12033945106965929,
        0.3191041474383715,
        -0.05605927896551956,
        0.16221115446742515,
        0.1761293885254859,
        0.14127743055037126,
        0.40096981116860597,
        -0.24754284603373092,
        -0.32268714868453247,
        -0.1724209401999279,
        0.32429997545477046,
        0.2163954217299799
      ],
      [
        0.4023674607988484,
        -0.2975088839649952,
        0.09169414192703154,
        -0.0956779127472131,
        -0.2781436390898303,
        0.29476497024998977,
        -0.1564258419404947,
        -0.1700072229730565,
        0.5620582714630027,
        0.16686984343189998,
        0.2587152572854812,
        0.21474997225670936,
        -0.18174890724473114,
        0.33487663605308265,
        0.4981805217507019,
        0.5573857903305012
      ],
      [
        0.16644931745569094,
        0.2866418151385123,
        0.49040836749242805,
        0.21538390408338334,
        -0.6994368901141876,
        0.685422620255174,
        -0.07577949994525071,
        -0.1530147253920404,
        0.5299382180621024,
        0.2912323117178654,
        0.09367891106452059,
        -0.20282637880155796,
        -0.33358691462075923,
        0.128622943016894,
        0.14833057694252874,
        0.46316920783446647
      ],
      [
        0.23265710319515276,
        -0.09432361534533819,
        0.9520632763393401,
        0.33753778090831804,
        0.24508946933384845,
        0.06077065634823681,
        -0.28626760583155353,
        -0.42386936862044017,
        0.27729342558802755,
        0.38922558963032544,
        0.18392096333437147,
        -0.1584818049255479,
        -0.3250801581249487,
        0.34729907542107175,
        0.1682134609889149,
        0.2428896414522706
      ],
      [
        0.5694279599478481,
        0.00865839688999417,
        0.36910856577315915,
        0.6111588288253013,
        0.10329698373495269,
        0.023962546840900396,
        0.1633157399627241,
        0.23587182583524155,
        0.20625223730050185,
        0.4622497162676363,
        0.6834075701016437,
        0.2952065463576057,
        -0.2736629414049787,
        0.3209745828630039,
        0.42838190177733626,
        0.35163730881229077
      ],
      [
        0.40179681892655345,
        -0.11891479063296137,
        0.5657555908773629,
        0.44092770345456195,
        -0.29566420227624185,
        0.042495712362195535,
        0.10964101560843006,
        0.2091749393467998,
        0.4191406140462099,
        0.4472954819775916,
        0.003964906628469451,
        0.006498033965325242,
        -0.016163836074298492,
        0.0868827863418362,
        0.1291006060533717,
        0.16327593799531048
      ],
      [
        -0.13409760669836865,
        -0.047225656477416826,
        -0.019616492075408193,
        0.048324914384394506,
        -0.06758221419585063,
        0.4403537495721783,
        -0.007822198955946663,
        0.13884263674496866,
        0.391742928423377,
        0.16542515602916072,
        -0.09405904494909786,
        -0.01773885269658326,
        -0.018304993768933707,
        0.36629933145826304,
        0.14155971593763983,
        -0.08915109666785749
      ],
      [
        -0.15004892381603605,
        -0.15377450822469313,
        -0.05381552222340878,
        0.058263190834506345,
        0.10843969346833852,
        0.37892678847149686,
        0.02185955961423247,
        -0.17624780601092127,
        -0.26313952558369125,
        -0.35072895808840865,
        -0.16781247768510887,
        -0.4532565189162554,
        -0.2760451219580927,
        -0.11598844020058167,
        -0.1878274447548178,
        0.3061954563809287
      ],
      [
        -0.15235174058571935,
        -0.267329767464364,
        0.037107564469923984,
        0.45253344839877957,
        -0.15195620421330783,
        0.04031776344042004,
        0.2624701389234056,
        0.2535302246068552,
        0.36076043912697064,
        -0.07954532682411274,
        -0.08862141004790972,
        -0.016969234222103766,
        0.24379529157607208,
        0.18123470542238548,
        0.1692600833058623,
        -0.03641345332966693
      ],
      [
        0.6098987617696537,
        -0.2786080968201684,
        0.4232586490149552,
        0.20873993331009857,
        -0.08360286751643982,
        0.027159799525319255,
        -0.31809379434218493,
        -0.034072600778915156,
        0.2114463503695408,
        0.505926012372649,
        0.13843570561871982,
        0.0019164001855545634,
        -0.023065136421952123,
        0.04762773249693021,
        0.221660188500436,
        -0.018354055223183865
      ],
      [
        -0.11083196623068664,
        0.2996057435848106,
        0.10313244363605563,
        0.3933804953580088,
        -0.32842678696803296,
        0.2919103054016254,
        0.11910130608538405,
        -0.01815267071472392,
        0.20390039574665703,
        0.12946838616493236,
        0.06771281696456573,
        0.2239048898673622,
        0.16525529704888858,
        0.5033595605518135,
        -0.0645224914912486,
        0.3341513129707211
      ],
      [
        0.398154152510368,
        -0.1870520396644625,
        -0.3467613848950003,
        0.2547764301338603,
        -0.2991322263679924,
        0.33566369603435414,
        -0.3155139434690516,
        0.11955672815975477,
        -0.114894135180546,
        -0.205247051233726,
        -0.14864528021107262,
        -0.02475005687809897,
        0.04798541170725363,
        0.1162191878980376,
        0.008128998242980863,
        0.35802740623744256
      ],
      [
        -0.04554588319255562,
        0.19104346577472156,
        -0.1335124860063172,
        -0.06434551992895328,
        0.11821544214615337,
        -0.10468693982858122,
        0.10971571371013131,
        -0.08055576600167721,
        -0.14339891325743623,
        0.26853858177164436,
        -0.05391625809556779,
        -0.17990647230319523,
        0.23245078821879733,
        0.1291829679496012,
        -0.21397272131969514,
        0.34362545822058554
      ],
      [
        0.39823175938208116,
        -0.07772197145729307,
        0.14242881960687134,
        0.4787266441058566,
        -0.33117630193858494,
        0.2634571807403234,
        0.17145518324758494,
        0.16541203091609008,
        0.06448021204347934,
        0.20814088733714975,
        0.11275333603433195,
        0.2114792121714246,
        -0.38132452520579885,
        0.34168165723371124,
        0.4683108125845538,
        0.5200370595245647
      ],
      [
        0.0744028266250504,
        0.15296338988514604,
        -0.10431280394044877,
        0.4195819126365319,
        -0.9110765134720801,
        0.09766167004248177,
        0.14885372156062807,
        -0.3515295413154868,
        0.009378607747525549,
        0.32620266685035704,
        0.33185457034587496,
        -0.0138520197763552,
        0.07167638073913356,
        0.206441361988575,
        0.013922195671773484,
        0.06566948842645925
      ],
      [
        -0.0036716341659554833,
        0.33043375907759154,
        0.26147340559708937,
        0.1157493262074948,
        -0.05615457498679086,
        0.48683780585779757,
        -0.30850441032902903,
        0.007565958493932724,
        0.21354855123767694,
        0.2902192975785254,
        -0.1314848323981826,
        0.26103501814679947,
        0.23762933778582357,
        0.26713695779233126,
        0.3369019810519356,
        0.47661436045510414
      ],
      [
        0.3173828184262346,
        -0.3142625639672074,
        0.12930598139286395,
        0.2308748253485326,
        -0.4018934089809266,
        0.31661799995432954,
        0.22905347150641064,
        0.2125026132512243,
        0.16703642070049796,
        -0.113744855441476,
        0.4977014965043916,
        0.14781625895370354,
        -0.33184148384847034,
        0.4535386771337358,
        0.4314833125088308,
        0.16990698025834308
      ],
      [
        0.5079387784239012,
        -0.12611457077675275,
        0.3943944558664827,
        0.2057908251440528,
        0.3192077823168872,
        -0.10093093294501894,
        -0.204199328512366,
        -0.08765262821688057,
        0.5530374630890856,
        0.8669655534918932,
        0.1998118233520122,
        -0.0573540227381601,
        0.12255067797796132,
        0.25570891015335595,
        0.26227279627819616,
        0.25257122302638474
      ],
      [
        0.09339290686188016,
        -0.2779942011397409,
        0.384351732891215,
        0.18024590918235706,
        0.18768936573427525,
        0.10562036176454008,
        0.0073476657768326995,
        0.04703082019649118,
        -0.051981868596905116,
        0.44865032592049603,
        0.09012205520104802,
        0.32254284171651726,
        -0.3041166426936651,
        0.23603834363573914,
        -0.01800396200007797,
        0.5695319545232855
      ],
      [
        0.21141816968349317,
        0.012561745005013884,
        -0.0031610911205355112,
        0.36732061758075596,
        -0.7501242969317031,
        0.4551637381968414,
        -0.27499655249566624,
        -0.2945219452969545,
        -0.07663560402554186,
        0.20695316465476563,
        0.23362965293563792,
        -0.3696279573676708,
        0.12160743822174422,
        0.1548909392795855,
        0.22219586480392003,
        0.14361666033379666
      ],
      [
        0.3410832023718269,
        -0.1397850137476718,
        0.3235039311035276,
        0.14495842076933826,
        0.5162125103873102,
        0.6418755093934992,
        -0.16937637107295173,
        -0.2944657875948186,
        0.5095184585220254,
        0.3959027197210176,
        0.03866316323252115,
        -0.10056720445785233,
        0.06687562895276442,
        0.4887192347440488,
        0.05761026071430758,
        0.15909945720935903
      ],
      [
        0.17950955925309497,
        0.14702502481889354,
        0.22295753697454754,
        0.029386412756875226,
        -0.04372078003959398,
        0.028775230984949326,
        0.033632950641670004,
        -0.24774047911075708,
        0.11637420066252131,
        0.24676656330276933,
        0.4863188612399178,
        0.3501535956445824,
        0.16920670645698027,
        0.2588202006543739,
        0.4348256019634068,
        0.08169805803338627
      ],
      [
        0.3067631637003739,
        0.25182695645148656,
        0.41180243794951943,
        0.09055330974320167,
        -0.5485274233672349,
        -0.030062940399693726,
        -0.2977044207804452,
        0.028365155390081765,
        0.4607880441655542,
        0.8584849846905237,
        0.6107252968306676,
        0.028324197215140134,
        -0.22208058158340063,
        0.3076808083797138,
        0.4618632736566534,
        0.19333603843265773
      ],
      [
        0.34439670413904216,
        -0.09003721233509614,
        0.2980865784269213,
        0.16700869307151697,
        -0.04721755048281357,
        0.5069894439198486,
        0.12212457410717782,
        -0.29820684139629183,
        0.4967309818529486,
        0.2533688248033097,
        0.5118311950603143,
        0.2092896962827053,
        -0.11812633684203082,
        -0.08395471636311355,
        0.07687531268418585,
        0.23055208645483782
      ],
      [
        0.49317473267227036,
        -0.24161688660727532,
        0.2682271149000448,
        0.5687797331849676,
        0.28848126059909274,
        0.304206906073987,
        -0.2851664347118741,
        -0.2725735566169813,
        0.049866236210231354,
        0.7397594884331676,
        0.10007365422095278,
        0.1527682837344896,
        -0.20916688462873367,
        0.4135209427946604,
        0.4673208252073057,
        0.5401791888581375
      ],
      [
        0.27587465270078576,
        -0.41124573091490135,
        0.38574099046855764,
        0.6873411503727808,
        0.36057539631869423,
        0.4142705605031232,
        0.009859533072459133,
        0.021920452190406118,
        0.23044223711012685,
        0.8471506036554336,
        0.3711383878865937,
        0.13459119883790702,
        -0.04606698092756553,
        0.10809595091222941,
        0.20931257821452778,
        0.543064240766414
      ]
    ],
    [
      [
        0.4143536029078287
      ],
      [
        -0.5594900868142003
      ],
      [
        0.42082649881268125
      ],
      [
        0.3516990887311397
      ],
      [
        -0.7273218484923621
      ],
      [
        0.5275983794755557
      ],
      [
        -0.42656880136055264
      ],
      [
        -0.4604274637337317
      ],
      [
        0.658120855786004
      ],
      [
        0.37319096063087237
      ],
      [
        0.5347383867077482
      ],
      [
        0.11607819087585591
      ],
      [
        -0.2511400537706054
      ],
      [
        0.6522743083005427
      ],
      [
        0.6426334971685518
      ],
      [
        0.4728783239028621
      ]
    ]
  ],
  "biases": [
    [
      0.20871097635958502,
      0.32222619158263205,
      0.7024207256708174,
      0.6315501644791037,
      0.7625186506094509,
      0.6572098433176674,
      0.13990480291331805,
      0.46455458319986537,
      0.3411551643437219,
      0.6356468409318276,
      0.4983866796781179,
      0.6263514410212927,
      0.4179856929591314,
      -0.005892685113675856,
      0.15011664400533484,
      0.3931960864503092,
      0.5289493892995535,
      0.12794611196181155,
      -0.041656896325176315,
      0.692269509838123,
      0.1853544898222466,
      0.7190397836569098,
      0.6425004600580497,
      0.29799355022092966,
      0.44030179119087515,
      0.8276457876087161,
      0.6554238000131353,
      0.5137308713088623,
      0.7940474664779196,
      0.8205403982087847,
      0.8731501886189136,
      0.9157896111235772
    ],
    [
      0.08827236014551489,
      0.029105051061852474,
      0.38545674715306893,
      0.23805530958582347,
      -0.21980588199980663,
      0.16364506035611348,
      0.09190680090724343,
      -0.2176665566605231,
      0.44397957949170713,
      0.44096777523614844,
      0.4508824350358911,
      0.38409553860506634,
      0.09602547386714541,
      0.14222378488956183,
      0.019770997408383967,
      0.12643228937413065
    ],
    [
      -0.04725514103385515
    ]
  ]
}